0.340188 -0.105617 0.283099 0.29844 0.411647 -0.302449 -0.164777 0.26823 -0.222225 0.05397 
-0.0226029 0.128871 -0.135216 0.0134009 0.45223 0.416195 0.135712 0.217297 -0.358397 0.106969 
-0.483699 -0.257113 -0.362768 0.304177 -0.343321 -0.0990556 -0.37021 -0.391191 0.498925 -0.281743 
0.0129324 0.339112 0.11264 -0.203968 0.137552 0.0242872 -0.00641701 0.472775 -0.207483 0.271358 
0.026745 0.269914 -0.0997714 0.391529 -0.216685 -0.147542 0.307725 0.419026 -0.430245 0.449327 
0.0259954 -0.413944 -0.307786 0.163227 0.390233 -0.151107 -0.435829 -0.479977 -0.0422983 -0.436904 
-0.26172 0.470634 0.402208 0.35092 -0.233334 0.0397603 -0.124793 0.260249 0.0125354 0.167724 
0.0316064 -0.46072 -0.0623624 0.431835 0.43081 0.220952 -0.215707 0.238534 0.139979 -0.145951 
0.187861 -0.334026 -0.0598955 0.380075 0.329201 -0.169663 -0.271032 0.393372 -0.14964 0.18667 
0.456468 0.0886401 0.157304 0.358676 -0.0604401 0.42397 -0.101563 0.314767 0.184219 0.410972 
-0.0175093 -0.284175 0.450252 0.420128 -0.35234 0.381062 0.141081 -0.0680466 0.119596 -0.218941 
0.286002 -0.192542 -0.0529664 -0.273893 -0.312467 -0.223765 0.0564438 -0.0834987 -0.330393 0.406804 
-0.396829 -0.373925 -0.00455593 0.260475 0.484752 0.435004 0.184445 -0.116812 0.249771 -0.131336 
-0.20584 -0.267738 0.0844885 -0.255587 -0.34761 0.232149 -0.374525 0.29347 -0.335898 0.245071 
-0.42547 0.450104 -0.447471 0.0215634 -0.323789 -0.259938 0.297798 0.232654 0.156564 0.467405 
0.139458 0.259735 -0.40652 -0.365098 0.0202101 -0.421768 -0.430094 -0.295345 -0.0385795 0.319677 
0.0733186 0.255581 -0.448061 -0.342193 0.499994 -0.295671 0.389956 -0.374532 0.497799 -0.445942 
0.37054 -0.427671 -0.495838 0.423069 0.0938922 -0.319628 -0.336869 -0.10831 0.413027 0.319695 
-0.140905 0.052485 0.07943 -0.0474242 0.187387 -0.40036 0.030808 0.257294 -0.195705 0.492228 
0.0769711 0.377614 0.247809 0.12891 -0.464579 0.247803 0.333239 0.425377 0.373271 0.331038 
0.479434 0.243811 0.403366 0.483596 0.16688 -0.00274148 -0.336032 0.330012 0.388949 -0.423005 
0.149707 -0.251956 0.12948 -0.270863 0.20062 -0.183133 -0.171223 -0.268572 -0.425839 0.133072 
-0.276344 0.151132 0.010686 0.471466 -0.219958 0.0461069 0.219269 -0.386719 -0.0285166 0.0925399 
0.444318 -0.0490824 -0.163649 0.347684 -0.0654867 -0.496769 -0.155057 0.0984813 0.333243 -0.266108 
0.175476 -0.0170497 -0.0180642 -0.195044 0.212087 -0.317444 0.121823 -0.459136 -0.0860163 0.195984 
0.173936 0.13764 -0.152884 -0.315378 0.109106 0.127158 0.230729 -0.171626 0.240438 -0.297787 
0.420914 0.184757 0.15313 -0.242735 0.032441 -0.412356 -0.239503 0.377384 0.186125 -0.40626 
-0.388724 -0.138399 0.0766905 0.0932115 0.166557 -0.211222 0.275767 -0.211621 -0.170358 -0.310249 
0.484363 -0.496421 0.327391 -0.168521 -0.311799 -0.063503 0.458637 0.41893 0.264871 0.199075 
-0.378857 0.185786 -0.116168 0.274273 0.443051 0.416273 0.361917 -0.296452 0.293657 0.048042 
-0.202712 0.404932 0.409643 0.373979 -0.00185607 0.0761995 -0.337243 -0.226089 0.364579 -0.00760118 
-0.0363378 0.348942 -0.0040226 -0.208947 -0.319579 0.184178 0.22755 -0.360942 0.103109 -0.00757828 
0.338134 0.224252 -0.321792 -0.278034 -0.00147452 -0.378741 -0.361762 -0.139557 -0.175193 0.431895 
0.408485 0.122095 0.336828 0.318128 -0.00392558 -0.165028 -0.105673 0.158831 0.108883 -0.241094 
-0.34877 -0.427455 -0.392152 0.147207 -0.136402 -0.21173 -0.168614 -0.408851 -0.0726723 0.434495 
0.0835703 -0.234539 0.158747 0.261778 -0.0125731 -0.342728 0.383037 0.125665 0.0177147 -0.292156 
0.0575606 -0.0738006 0.329939 -0.105612 -0.255673 -0.173987 0.22936 0.138654 0.484845 -0.161757 
0.39756 -0.363925 -0.0892121 -0.494591 0.283282 0.274386 -0.206322 -0.385332 0.365535 0.221006 
-0.450838 -0.0508949 0.486467 0.207909 -0.289117 -0.026106 0.365181 -0.40608 -0.400441 -0.117104 
-0.198237 0.15712 0.309095 -0.368298 -0.448492 -0.446578 -0.0422844 0.280868 0.192076 -0.0574398 
-0.380889 0.0896367 0.0786348 0.0298992 0.0950453 -0.138083 -0.195715 0.388723 -0.0234153 -0.33018 
0.109729 0.0257471 0.118925 0.0961962 -0.266344 0.329808 -0.42991 -0.401163 0.423728 -0.33035 
-0.0182666 -0.274509 0.326769 -0.209171 -0.142807 0.378278 -0.155749 0.314909 0.159146 -0.463673 
-0.242531 0.278257 0.125964 0.336104 -0.191843 -0.278991 -0.301979 0.112442 -0.390267 0.174605 
0.282262 0.219462 -0.299648 -0.0988123 -0.184342 -0.0659914 -0.269004 -0.114252 0.032846 -0.345276 
0.0553977 -0.485421 -0.119785 -0.117833 -0.194592 0.237408 -0.239555 0.149659 0.0523164 0.419591 
0.185986 0.309785 0.197848 -0.18805 0.145889 -0.493995 0.0329598 0.34391 0.118447 0.142693 
0.0185149 -0.099291 -0.137846 0.218867 0.301897 0.177812 -0.347124 -0.467107 -0.436439 0.185722 
-0.312384 0.118958 0.200301 0.0678311 -0.498875 -0.494291 -0.194761 -0.23843 0.155368 0.357555 
-0.318839 -0.158646 0.167341 0.379009 0.153305 -0.18677 0.385014 -0.313735 -0.342861 0.00346098 
0.328957 0.175654 0.40417 -0.308888 -0.105479 0.206067 0.368924 0.0473971 0.238959 0.432485 
-0.266881 0.426576 0.0514429 0.43342 -0.00559312 0.0525684 0.439129 0.299646 0.314139 0.0944973 
0.157201 0.4953 0.435852 -0.175459 0.374309 0.0891567 0.137771 0.259324 0.275421 0.29491 
-0.237215 0.104379 -0.0294358 -0.333045 0.29549 0.365086 0.373021 0.164414 -0.0875174 0.111981 
0.096899 0.145601 0.0385565 -0.351658 0.0790215 -0.467037 0.20091 0.0181507 0.332609 0.0150491 
-0.387352 -0.01019 0.010349 -0.4515 0.314351 -0.115342 0.137656 -0.0478776 -0.356018 -0.0869222 
-0.252967 -0.0932334 -0.482543 0.217597 0.0737212 0.312947 0.0826823 -0.0532575 -0.0226386 0.495165 
-0.441277 -0.42574 0.140766 0.0972798 -0.277398 -0.280212 0.130243 0.423513 0.237939 -0.0371478 
-0.0614382 0.350586 0.452662 0.448911 0.399086 0.267014 -0.166431 0.0367425 -0.280864 -0.0224488 
0.44982 -0.0338314 0.384318 0.467277 -0.316235 -0.041961 0.280224 0.266448 0.404782 -0.242415 
0.261612 0.463505 -0.168154 -0.0976212 0.0607845 0.0544482 0.122167 -0.308972 -0.0220391 -0.139895 
0.15388 0.416523 -0.289308 0.106542 0.365434 -0.390222 -0.126444 -0.300997 0.14652 0.0926919 
0.176554 0.0963405 -0.44114 0.0608718 0.0636174 -0.257374 -0.481089 -0.156159 -0.490927 0.423692 
0.101427 0.270686 0.387197 0.433273 -0.326935 -0.0520185 -0.0122793 0.295231 0.139009 0.465682 
-0.344664 -0.207111 0.382204 -0.133972 0.399431 0.247638 -0.0241944 -0.227013 0.44664 -0.377674 
0.365679 0.123194 0.218666 0.42454 -0.315934 -0.217716 -0.332835 -0.297023 0.126125 -0.323761 
-0.373331 -0.272448 0.446925 -0.486134 -0.339176 -0.380011 -0.0381522 0.148545 0.415221 -0.399143 
0.114227 -0.429443 -0.106254 -0.00356904 -0.0634151 -0.206823 -0.255931 0.412391 0.0661645 -0.309291 
-0.465284 -0.0681565 0.313904 0.253383 -0.143617 0.49797 -0.464334 0.0235484 -0.299053 0.161792 
0.199787 -0.172384 0.389343 0.146712 -0.158518 -0.449832 0.266701 0.30333 0.198713 0.181922 
0.404187 -0.18706 0.252479 -0.202067 0.309371 -0.310936 0.0911106 -0.446561 -0.398546 -0.342725 
-0.255851 -0.363829 0.0891186 -0.441948 0.389553 0.445502 -0.443978 0.42522 -0.03095 -0.243031 
0.0870112 -0.331163 0.0845852 -0.0236453 0.315549 0.426068 0.0265226 0.0822501 0.229398 -0.274764 
-0.235828 0.133585 0.0381753 -0.483349 0.431518 -0.152454 -0.294286 0.0226287 -0.0990146 -0.192832 
0.179904 0.145134 -0.0566611 -0.230978 0.203186 -0.167108 -0.285476 0.259208 -0.241888 0.183574 
-0.483823 0.345123 0.352411 0.100763 -0.178522 0.16796 0.0268302 0.348 -0.24979 -0.243772 
-0.426764 0.0143822 0.389813 0.111411 0.0310328 0.321331 0.458957 0.236747 -0.156041 -0.140058 
-0.456085 -0.476137 -0.494924 -0.0127458 -0.207114 0.208262 0.320146 0.00740955 -0.0325291 -0.421742 
-0.309016 -0.0163516 0.423381 -0.456605 -0.415589 -0.255142 0.211355 0.111241 -0.407142 0.461565 
0.367469 -0.333906 -0.0240526 0.257282 0.277505 -0.49302 0.0786126 0.236462 0.243727 0.422572 
-0.403596 0.287642 0.446435 -0.39852 -0.225103 -0.260679 0.309743 -0.404957 0.24673 -0.222786 
-0.326699 0.437714 0.260862 -0.403319 0.481109 0.345273 -0.15846 0.192463 -0.0434858 -0.0656019 
0.154029 -0.176017 0.100492 -0.370024 -0.418735 -0.122003 -0.363044 0.159878 -0.385541 0.380683 
0.0824496 -0.289137 0.168326 0.0288848 -0.187657 0.443222 0.268206 -0.377914 -0.461735 0.014936 
-0.1007 -0.288435 -0.0473502 -0.339838 -0.191753 -0.0662416 -0.494565 0.149787 -0.373778 -0.0380509 
-0.415815 0.280251 0.285932 0.184677 0.410227 0.367197 -0.437326 -0.452817 0.027075 -0.322867 
0.427866 -0.390475 -0.112004 0.0961913 0.138409 0.20034 0.0394134 -0.0933849 0.322426 0.0776783 
0.421551 -0.278274 0.289244 -0.125799 -0.118112 -0.402509 0.307959 -0.112677 0.247277 0.434181 
0.349272 0.331462 0.214432 0.135204 0.0161386 0.124658 0.00240127 0.0788125 0.171841 -0.470524 
0.255945 0.0997065 -0.360999 -0.356058 -0.304102 0.27741 0.344281 0.235311 -0.315975 0.166707 
-0.18701 -0.394424 0.388433 -0.397767 -0.0202229 -0.229679 -0.300276 -0.212264 0.157643 0.447001 
-0.278082 0.00691465 0.278463 0.436349 -0.357881 -0.205399 0.0610074 0.14452 0.373414 -0.267152 
0.173996 0.129359 0.332555 0.312997 0.273301 -0.471547 0.0904071 0.117582 0.263764 0.274432 
-0.215711 -0.423247 0.380009 -0.327278 -0.321013 -0.140214 -0.0569574 -0.12129 0.147522 -0.399314 
-0.174289 0.36944 0.1076 -0.395826 0.305789 0.249719 -0.101225 -0.133204 -0.105761 -0.227811 
0.0996445 -0.431765 0.401549 -0.0678009 0.381232 0.17485 -0.0393483 -0.0283612 -0.207568 -0.275585 
-0.253929 0.076721 -0.198831 -0.37392 0.249443 -0.0198445 -0.0141342 -0.307514 0.358866 -0.366612 
-0.206829 -0.315423 -0.497172 0.400772 -0.211248 0.308617 0.150491 0.187527 -0.324587 -0.455271 
0.459716 0.275058 -0.387036 0.361265 -0.292743 0.494196 0.0361146 0.167908 -0.0341652 0.328546 
0.392324 0.211906 -0.0947327 -0.306507 0.337986 -0.345289 0.173648 -0.176148 -0.152804 0.0325141 
-0.0427603 0.140368 0.217092 -0.0399325 0.0411396 -0.494157 -0.231316 -0.30837 0.19337 -0.0559027 
-0.26364 0.153087 -0.280845 -0.150676 0.0143517 -0.0735884 -0.15648 -0.449534 -0.40568 0.309355 
0.379013 0.486644 0.0212608 -0.21572 -0.319864 -0.140753 -0.0610096 0.353785 0.183098 0.286187 
-0.113701 -0.359662 -0.0734455 -0.39661 0.100405 0.467694 -0.390767 0.36909 -0.340676 0.302604 
-0.186813 -0.104316 -0.0443096 0.0323419 0.245008 0.470042 0.458753 -0.411472 -0.479492 -0.446927 
0.397883 0.399521 -0.460283 -0.0808561 -0.316199 -0.280147 0.278391 0.122791 -0.426362 -0.0385111 
-0.0910219 -0.0400635 0.101827 0.335533 0.0633267 -0.297768 0.303227 0.17256 -0.428678 0.462551 
-0.0248361 -0.115491 -0.141765 0.430854 0.416851 -0.396756 0.400896 0.375604 -0.308228 0.421405 
0.428678 -0.410345 0.320926 0.468395 0.00879889 -0.495273 -0.311752 -0.212811 0.127518 -0.238114 
0.248678 -0.463504 0.221822 -0.149495 0.372028 -0.214851 0.0527376 0.175255 0.457709 0.12406 
0.137806 -0.0671268 -0.491431 0.496042 -0.136273 0.42542 -0.400715 -0.235376 0.301024 -0.208943 
-0.313971 0.229702 -0.119288 -0.493046 0.198096 0.389511 -0.488319 0.386344 -0.3233 0.139199 
-0.35177 0.425379 0.175694 0.370053 -0.224116 0.0477228 -0.344798 0.328622 -0.277022 -0.387089 
-0.0473188 0.360784 0.0457844 -0.0387502 0.356826 0.409512 -0.113331 0.456111 -0.325864 -0.312307 
-0.252832 -0.139836 0.417395 0.12788 -0.132882 0.115491 0.0173907 -0.121201 0.00183533 0.194091 
-0.482002 0.150066 0.11947 0.193692 0.0201183 0.395354 -0.258585 0.17532 0.223975 -0.0356071 
0.288231 -0.323344 -0.174823 -0.165984 0.137906 -0.317997 -0.256472 -0.475425 -0.361886 -0.0823366 
-0.287731 -0.114718 0.277828 -0.370337 -0.486839 -0.355054 0.245154 0.0305522 0.0237453 -0.25301 
-0.275357 0.041743 0.397055 0.344113 -0.264565 -0.0828264 0.239467 -0.02315 -0.407506 -0.036558 
0.441243 0.380725 0.140098 -0.23358 -0.285259 -0.221995 -0.0515772 -0.0417314 -0.19742 0.0865366 
0.375932 0.0148488 0.471818 0.15376 0.144512 0.48498 0.298706 -0.110333 0.0155318 -0.177549 
0.136656 0.240175 0.364194 0.0337117 0.0842881 -0.400371 0.450885 -0.176245 0.0764793 -0.456621 
0.287197 0.0177222 0.424104 -0.0727047 0.284142 -0.361155 0.2053 -0.267435 0.0971135 -0.49212 
0.319102 -0.0269545 0.0227289 0.29092 -0.373195 -0.332759 0.275899 0.425511 0.0569077 -0.208569 
-0.252038 -0.306436 -0.468394 -0.387843 0.227276 0.115894 -0.288214 0.178161 0.439649 0.288265 
0.22154 0.226846 -0.194013 0.145644 -0.345859 -0.40987 0.284489 0.359441 -0.177305 -0.118397 
0.367321 -0.358204 0.354648 -0.10995 0.432716 0.481453 0.0572915 0.208616 0.406964 -0.385801 
-0.499953 -0.345073 -0.192237 -0.468347 -0.232917 -0.464961 0.147548 -0.0211309 0.2132 0.087197 
-0.232866 -0.0652601 -0.185957 0.0731219 -0.419616 -0.0318154 0.163252 0.364873 -0.172374 0.485946 
-0.253524 -0.305052 -0.372257 -0.398876 0.0849979 -0.439541 -0.417423 -0.357711 0.269074 0.489541 
-0.243511 0.269121 -0.355532 0.0642517 0.300775 -0.0884488 0.0992907 -0.0516777 0.39042 -0.187509 
-0.464481 -0.342445 0.247231 -0.150438 0.230677 0.327615 0.317747 -0.106072 0.192488 -0.354627 
-0.120126 0.438963 -0.159679 0.00761713 -0.459913 0.425318 0.068076 -0.377336 -0.432392 -0.16285 
-0.387795 -0.175904 -0.393728 -0.243327 0.388348 0.407046 0.168224 -0.0123612 -0.144631 0.0586448 
0.300129 -0.109112 0.216199 0.04736 0.24045 -0.053124 -0.125025 0.0581976 0.340804 -0.432538 
0.203571 -0.279321 -0.493574 -0.456109 0.228296 -0.453487 0.46921 -0.203628 -0.330823 -0.463182 
0.133522 -0.218618 -0.139086 0.239794 0.0380554 -0.250738 0.14684 -0.29372 0.236901 -0.497791 
0.264925 0.0370302 -0.106903 -0.0188759 -0.41561 -0.366452 0.428 -0.0406353 0.191745 0.268804 
0.026827 -0.104684 0.489483 0.0332526 -0.0607927 0.217778 0.0797653 -0.0915829 -0.48585 0.248942 
-0.0547653 0.147672 -0.469676 0.306149 -0.112534 0.0683794 -0.444589 -0.465693 0.274659 0.292311 
-0.463484 0.0395839 -0.170658 -0.0703867 -0.479292 -0.0862682 0.0631611 0.448708 0.373097 -0.245094 
0.217512 -0.100076 0.150222 0.206995 0.433176 -0.41057 -0.0752263 0.0129414 -0.00215321 -0.0610761 
-0.238117 0.443081 -0.413404 -0.207793 0.24923 -0.0259374 0.360587 0.304641 0.00836938 0.135246 
0.0969521 0.0448854 -0.32517 0.426294 0.474499 -0.304462 -0.159974 0.0376598 -0.355754 -0.286878 
0.292566 0.361759 0.113046 -0.0572114 0.068754 0.0462219 0.0322183 0.493528 -0.440837 -0.469935 
-0.0675484 -0.178953 0.473147 0.0190478 0.113254 0.222377 0.49311 -0.0261591 0.0270173 0.00147976 
-0.390913 -0.376031 -0.453635 -0.216083 -0.449737 -0.479136 -0.0205449 -0.109711 0.0585237 0.123701 
0.103411 -0.14891 -0.0145399 -0.283543 0.293879 -0.445786 0.262679 -0.173903 -0.452258 0.321842 
-0.143838 -0.0198066 -0.357111 -0.170691 0.499241 0.256143 -0.448315 0.492352 -0.270016 0.0787025 
-0.00616867 -0.160929 0.202672 0.0401965 0.122988 0.252935 0.0610604 -0.397557 -0.356776 -0.380416 
0.226144 0.246635 -0.029326 -0.288396 0.463092 -0.235447 -0.234182 0.225771 0.0906494 -0.18644 
0.047613 0.446811 0.293753 0.190502 -0.22388 0.292995 -0.0533554 -0.172195 0.285346 0.176628 
0.406508 -0.220822 -0.484301 0.109179 0.319374 0.138687 -0.137885 -0.119566 0.24113 0.00533879 
1.85983e-05 -0.0327258 -0.248026 0.470693 0.178878 -0.284934 -0.264755 0.444697 0.440837 0.325895 
-0.241743 -0.01155 0.272706 -0.44799 -0.321048 -0.451174 0.345005 0.125596 -0.123369 0.130351 
-0.197775 -0.216862 0.409529 -0.182076 0.392318 0.228903 0.456611 -0.245568 -0.390663 0.197741 
0.259771 0.109356 -0.334985 -0.488255 0.0800484 0.343894 -0.273189 0.315294 0.28859 -0.332352 
0.141188 -0.453153 0.156098 -0.0861059 -0.401142 0.33505 -0.0372801 0.443863 -0.0393535 0.339351 
0.0742137 0.262871 -0.377511 -0.0162576 -0.419205 -0.485193 -0.287355 -0.462594 -0.230761 -0.178018 
0.235147 -0.470989 0.431338 0.400163 -0.459244 0.0113864 0.244056 -0.232433 -0.17332 0.0326466 
-0.0647842 0.467868 0.0794939 -0.408686 -0.118238 0.178351 0.426364 0.344482 0.122214 -0.112989 
0.183833 -0.303572 -0.350118 0.306322 0.18017 -0.269323 0.321129 0.392815 -0.231916 -0.409632 
-0.285203 -0.496769 -0.380621 -0.353865 0.403394 -0.339865 0.157522 0.14745 -0.0722979 0.484202 
-0.319904 0.362918 0.45207 0.25959 0.454232 -0.166168 -0.0620584 0.380596 -0.321686 -0.439844 
-0.232393 0.362147 -0.243417 -0.0825106 0.168469 0.436754 0.148167 -0.0104027 0.329569 0.41625 
0.0799655 -0.455634 0.419481 0.199344 -0.309499 0.322875 0.359479 0.348023 -0.0296752 -0.212819 
0.332225 0.150421 -0.349901 0.284295 -0.0899887 -0.395669 -0.381874 0.347953 0.484927 -0.20356 
0.408109 -0.247465 -0.341413 -0.335308 0.170024 0.327056 -0.398554 -0.181809 -0.183347 0.431014 
-0.265559 0.396618 0.47538 -0.346077 0.0959627 -0.334118 0.476798 -0.0445584 -0.486095 -0.0528774 
0.242623 0.34613 -0.402456 0.392721 0.130424 0.007555 0.497052 0.248551 -0.144492 0.48198 
-0.455009 -0.236383 -0.265486 -0.296422 -0.0716915 0.404539 -0.469366 0.029754 -0.277271 -0.152713 
-0.0392317 -0.0428294 -0.256095 -0.0638514 0.111093 0.339868 0.10203 0.0878912 -0.204691 0.115935 
-0.464986 -0.462068 -0.037935 -0.367442 0.430653 -0.407511 0.140113 0.427706 0.34104 0.49562 
0.409686 0.386031 -0.240763 -0.3558 -0.410391 0.187546 -0.451261 -0.379757 -0.2827 -0.228532 
-0.0324707 0.178068 0.228638 0.211434 -0.385784 -0.160268 0.0513021 0.216247 0.427623 0.346611 
0.332182 0.962637 0.884543 0.794247 0.0951945 0.815197 0.886736 0.735307 0.742903 0.727776 0.730928 0.652588 0.613807 0.990165 0.796788 0.703416 0.67771 0.845527 0.823659 0.89501 0.116995 0.291188 0.573077 0.845633 0.00262258 0.687294 0.185365 0.553925 0.403541 0.112988 0.400536 0.735723 0.0756249 0.28508 0.52997 0.170819 0.100276 0.416706 0.906126 0.843179 0.144482 0.637054 0.495767 0.75829 0.627219 0.292555 0.461706 0.304929 0.138082 0.285365 0.199938 0.255076 0.576553 0.773016 0.100709 0.579176 0.460309 0.286074 0.1331 0.86385 0.399062 0.533636 0.599573 0.474687 0.818716 0.129542 0.645506 0.918992 0.546248 0.551633 0.762171 0.690731 0.188687 0.257939 0.44902 0.815905 0.550494 0.910726 0.120834 0.688576 0.196091 0.320772 0.943652 0.772644 0.0937877 0.0443619 0.554097 0.330436 0.484919 0.417947 0.729499 0.0185558 0.0175198 0.204186 0.837272 0.147062 0.849692 0.756264 0.693311 0.401325 0.518436 0.384041 0.590012 0.776374 0.833062 0.405917 0.326868 0.743788 0.526751 0.0154439 0.939879 0.847523 0.959096 0.712522 0.941311 0.00345808 0.0643416 0.495408 0.333894 0.549261 0.913355 0.0633928 0.567817 0.930875 0.267578 0.405089 0.0779371 0.117271 0.161353 0.771248 0.518596 0.679788 0.155289 0.108608 0.456162 0.988351 0.514525 0.78303 0.732138 0.041276 0.798474 0.672017 0.888799 0.757571 0.384539 0.83011 0.761029 0.448881 0.325518 0.094923 0.998142 0.238873 0.158316 0.565959 0.169748 0.425894 0.971047 0.247685 0.543165 0.1324 0.0189329 0.0617606 0.812189 0.174222 0.170368 0.268351 0.162572 0.684893 0.0513816 0.894711 0.726169 0.849856 0.614968 0.607427 0.951267 0.445079 0.368455 0.400148 0.770597 0.463378 0.39829 0.00947013 0.621694 0.964248 0.179218 0.0475882 0.935296 0.426904 0.590753 0.067696 0.445836 0.652514 0.879885 0.620058 0.822882 0.148236 0.782631 0.507775 0.199617 0.677342 0.233944 0.0494732 0.244069 0.848912 0.6569 0.195336 0.293991 0.0253549 0.595484 0.0645876 0.488733 0.993774 0.0740577 0.110427 0.958022 0.253276 0.158015 0.893318 0.68018 0.748768 0.961014 0.126016 0.401282 0.840899 0.746075 0.224164 0.989134 0.528705 0.731938 0.188752 0.206047 0.965882 0.238225 0.450117 0.814794 0.895125 0.645453 0.108785 0.92048 0.240937 0.173373 0.409213 0.234711 0.247431 0.51964 0.192734 0.500707 0.677655 0.0860517 0.180886 0.426423 0.0470658 0.306902 0.827705 0.887965 0.0529768 0.0518689 0.877099 0.783807 0.0658506 0.787729 0.74969 0.304075 0.237846 0.564484 0.1992 0.883299 0.673269 0.119679 0.124236 0.846642 0.528892 0.358948 0.0940727 0.0485317 0.551681 0.594779 0.726187 0.637733 0.775665 0.15261 0.684799 0.0825677 0.980315 0.572763 0.135545 0.0321839 0.449862 0.717227 0.815991 0.515713 0.504956 0.565681 0.819788 0.742802 0.130165 0.0189879 0.626101 0.803434 0.138667 0.750337 0.650077 0.667559 0.109285 0.744149 0.716091 0.660966 0.338929 0.442278 0.298698 0.114594 0.594888 0.983497 0.197162 0.575203 0.55626 0.332706 0.607387 0.00612195 0.0499329 0.423378 0.521834 0.554889 0.989059 0.341622 0.297691 0.119224 0.36061 0.923792 0.922658 0.499278 0.674129 0.572735 0.166837 0.783413 0.316884 0.882928 0.444379 0.655813 0.325206 0.743078 0.770407 0.920094 0.726575 0.495297 0.282835 0.300275 0.102683 0.288957 0.350207 0.526061 0.810791 0.905096 0.51512 0.152413 0.202787 0.634344 0.513024 0.126579 0.557002 0.0123013 0.800708 0.129737 0.179138 0.584121 0.446622 0.0620666 0.0285004 0.102434 0.387273 0.771578 0.872841 0.307366 0.498153 0.840409 0.802663 0.780987 0.140684 0.905346 0.0699438 0.490891 0.431407 0.880735 0.395988 0.946527 0.0331482 0.598775 0.580872 0.546172 0.725354 0.137874 0.558473 0.526062 0.267611 0.737611 0.110183 0.714233 0.799678 0.138684 0.816667 0.186951 0.910262 0.689509 0.494317 0.408414 0.529918 0.29698 0.189401 0.670602 0.202326 0.259345 0.161494 0.633734 0.14008 0.557481 0.580261 0.173228 0.156257 0.161133 0.7194 0.881611 0.299007 0.277873 0.407673 0.566618 0.0154844 0.517856 0.280851 0.815162 0.65654 0.00211305 0.566801 0.787027 0.49643 0.975215 0.316945 0.79341 0.164617 0.987547 0.995737 0.423962 0.149041 0.629471 0.564042 0.706522 0.209732 0.73727 0.862779 0.370865 0.45667 0.74439 0.669871 0.734543 0.152062 0.23649 0.750027 0.669918 0.517341 0.565189 0.326458 0.614859 0.567302 0.893259 0.401886 0.0637327 0.868474 0.718831 0.857143 0.0330907 0.706378 0.85288 0.457052 0.855419 0.48235 0.021094 0.561941 0.692082 0.758364 0.42472 0.0629468 0.215033 0.169109 0.732818 0.949576 0.321172 0.969308 0.699603 0.99109 0.486648 0.264793 0.317548 0.101507 0.832095 0.210806 0.503394 0.895828 0.0792805 0.222225 0.752971 0.112371 0.928603 0.60585 0.569424 0.784022 0.0882007 0.590518 0.345963 0.780283 0.348881 0.770682 0.84323 0.563915 0.939791 0.576048 0.513491 0.260963 0.213094 0.252053 0.0320041 0.477887 0.5696 0.133512 0.309982 0.780407 0.636905 0.205809 0.859687 0.85913 0.95878 0.972059 0.787733 0.56463 0.541482 0.571755 0.652831 0.132 0.917717 0.433114 0.480881 0.688399 0.276344 0.0447959 0.628191 0.852391 0.558287 0.889154 0.397747 0.771381 0.141207 0.429751 0.249267 0.710807 0.563263 0.559249 0.491214 0.200168 0.765058 0.350901 0.0592977 0.723838 0.32296 0.847031 0.288468 0.864442 0.418785 0.941299 0.996442 0.336502 0.374413 0.477323 0.0249018 0.650757 0.522119 0.653093 0.503148 0.0804055 0.542247 0.900895 0.851786 0.683453 0.330647 0.101054 0.39426 0.893909 0.660302 0.885474 0.0940773 0.425361 0.236375 0.153375 0.149199 0.559335 0.000405591 0.437667 0.423777 0.419191 0.378966 0.420218 0.755693 0.753379 0.897541 0.780595 0.41966 0.433687 0.907284 0.500065 0.975934 0.808179 0.351851 0.659387 0.138826 0.452905 0.0536473 0.0327351 0.113207 0.939121 0.126812 0.538568 0.175496 0.280188 0.687766 0.734831 0.280593 0.125433 0.158607 0.699784 0.504399 0.578825 0.455477 0.257778 0.476366 0.236071 0.661914 0.896026 0.669759 0.569198 0.396091 0.645693 0.377377 0.747942 0.30508 0.516203 0.200847 0.358727 0.548938 0.314054 0.297849 0.67575 0.852622 0.473345 0.955938 0.540389 0.208175 0.236531 0.665822 0.366783 0.936315 0.170221 0.945608 0.391792 0.427999 0.421975 0.627863 0.0899137 0.318 0.297622 0.659112 0.714091 0.943315 0.0364889 0.462033 0.248395 0.552692 0.66288 0.607122 0.10163 0.976935 0.904971 0.77738 0.829557 0.378316 0.733318 0.369946 0.586491 0.969849 0.0357674 0.953274 0.906164 0.898882 0.297956 0.633988 0.320857 0.925819 0.723902 0.638857 0.223441 0.383013 0.352948 0.166755 0.419502 0.814982 0.41515 0.972194 0.477862 0.0222729 0.0738238 0.454797 0.927244 0.851204 0.284354 0.30556 0.584522 0.654299 0.892051 0.554371 0.690067 0.845325 0.460535 0.896055 0.744207 0.758491 0.530043 0.0650635 0.68431 0.253945 0.703921 0.90775 0.636959 0.056869 0.0745054 0.0564608 0.871851 0.489656 0.0286548 0.349713 0.511929 0.102479 0.80451 0.439173 0.953683 0.0888636 0.744732 0.538205 0.743163 0.636783 0.092576 0.43323 0.482107 0.553111 0.329285 0.226314 0.311602 0.859329 0.291378 0.995912 0.113274 0.995298 0.903662 0.750232 0.0521674 0.978167 0.806693 0.924018 0.467823 0.835348 0.273731 0.979752 0.937826 0.0782409 0.418925 0.891509 0.167104 0.163657 0.429714 0.80044 0.52229 0.343497 0.282547 0.0754011 0.672782 0.508861 0.387003 0.532111 0.800239 0.382915 0.645385 0.795537 0.286577 0.395617 0.847705 0.264745 0.20231 0.771723 0.732568 0.0376578 0.0454541 0.71232 0.975484 0.123695 0.131244 0.866993 0.290799 0.294901 0.296707 0.201067 0.0953408 0.818996 0.544564 0.377888 0.894397 0.217346 0.886749 0.281401 0.749457 0.686988 0.664316 0.394842 0.482525 0.950893 0.790458 0.33023 0.215638 0.992768 0.101953 0.948206 0.0304262 0.147407 0.660526 0.00591033 0.271102 0.79177 0.872903 0.561902 0.0866714 0.16961 0.762968 0.182012 0.988606 0.307532 0.5599 0.883004 0.524878 0.446649 0.164405 0.274335 0.133637 0.828721 0.669177 0.616163 0.779615 0.459635 0.946393 0.995253 0.452404 0.048346 0.943459 0.48283 0.195753 0.603984 0.48874 0.395754 0.361644 0.028757 0.482426 0.531254 0.791725 0.664438 0.51986 0.0992575 0.224338 0.402864 0.624136 0.670987 0.567269 0.898471 0.804625 0.39599 0.567648 0.420787 0.175605 0.0272838 0.36718 0.170857 0.479688 0.415526 0.114316 0.962518 0.611279 0.7183 0.451258 0.0781347 0.114054 0.812902 0.106892 0.59648 0.344156 0.898617 0.260918 0.864016 0.997875 0.485257 0.26688 0.622011 0.156244 0.834149 0.520482 0.960868 0.230139 0.0881301 0.381656 0.405744 0.115414 0.748836 0.576601 0.595102 0.164362 0.690917 0.557619 0.775641 0.409217 0.00887705 0.853776 0.523271 0.821779 0.960668 0.119752 0.165934 0.859285 0.38067 0.0299502 0.857159 0.865927 0.29683 0.47917 0.0221705 0.130979 0.999652 0.983039 0.361119 0.0877818 0.364695 0.766862 0.203196 0.11353 0.343464 0.798297 0.0343803 0.355916 0.0535336 0.443597 0.364793 0.90731 0.966868 0.186572 0.867977 0.08662 0.352506 0.727262 0.46729 0.382457 0.584421 0.333217 0.679287 0.0635912 0.355387 0.810266 0.0632429 0.338426 0.171385 0.151025 0.703121 0.938247 0.354221 0.816651 0.281711 0.152518 0.0945434 0.316091 0.508434 0.148077 0.759688 0.873228 0.0553866 0.726557 0.0597998 0.923364 0.813177 0.412306 0.650626 0.280467 0.794763 0.235047 0.613683 0.47405 0.298639 0.96907 0.284316 0.361881 0.307496 0.455701 0.512906 0.0106171 0.393948 0.867127 0.827268 0.675659 0.0196445 0.921812 0.991751 0.528079 0.0698885 0.751439 0.401306 0.125275 0.477996 0.461106 0.048639 0.291173 0.873412 0.699265 0.571639 0.668175 0.934312 0.185323 0.142225 0.232951 0.154393 0.426541 0.594832 0.46189 0.882242 0.107738 0.27619 0.974865 0.299775 0.95185 0.99451 0.221587 0.943601 0.522588 0.291475 0.69504 0.923895 0.41675 0.173036 0.385001 0.465389 0.464208 0.258413 0.164654 0.0358477 0.926589 0.0989663 0.221171 0.0688135 0.331917 0.375564 0.495355 0.926749 0.837454 0.377597 0.0344874 0.309961 0.653787 0.00935241 0.609736 0.605637 0.00386199 0.831323 0.549238 0.52645 0.122798 0.244277 0.450345 0.539549 0.417313 0.835346 0.00493794 0.881521 0.0937589 0.169592 0.917369 0.0203474 0.268558 0.138539 0.089161 0.600475 0.514103 0.584516 0.527224 0.351557 0.962112 0.561712 0.661518 0.615899 0.571064 0.271254 0.221536 0.574926 0.102577 0.770774 0.101377 0.225375 0.015051 0.551721 0.764924 0.432364 0.387067 0.769862 0.313885 0.480826 0.939454 0.231253 0.501174 0.208012 0.369793 0.590334 0.808488 0.17485 0.335712 0.235453 0.136962 0.897424 0.896971 0.752861 0.468488 0.168225 0.974398 0.0434146 0.270803 0.745172 0.144791 0.496178 0.760223 0.696513 0.261102 0.192586 0.0835797 0.0309635 0.506471 0.564406 0.970417 0.737725 0.0655793 0.17843 0.107517 0.655914 0.986918 0.991413 0.830764 0.32263 0.226866 0.967726 0.220054 0.123838 0.720587 0.688542 0.292063 0.694985 0.731957 0.562866 0.440157 0.876748 0.0590435 0.200379 0.573261 0.320145 0.392965 0.65684 0.351109 0.899437 0.221246 0.321526 0.637161 0.286825 0.499956 0.744678 0.942739 0.486873 0.736092 0.773503 0.809503 0.962958 0.741229 0.0295571 0.0867955 0.461816 0.718099 0.378859 0.156801 0.450056 0.941724 0.596958 0.326804 0.000767693 0.797337 0.900065 0.320913 0.190303 0.556905 0.672021 0.0897392 0.778152 0.993547 0.0649769 0.493503 0.471579 0.00771607 0.980376 0.20767 0.781219 0.789879 0.170628 0.522448 0.819437 0.257423 0.984264 0.537536 0.636282 0.141065 0.987592 0.578006 0.738023 0.314397 0.578774 0.53536 0.214462 0.899687 0.725663 0.771367 0.571708 0.815402 0.549519 0.565256 0.542303 0.614496 0.0587587 0.0138811 0.622212 0.0391351 0.221551 0.403431 0.829015 0.392179 0.925878 0.648451 0.649603 0.910142 0.185987 0.285885 0.0512077 0.173579 0.863891 0.789231 0.487976 0.442665 0.324591 0.702437 0.342352 0.0502544 0.473805 0.91406 0.865657 0.0233231 0.479315 0.407959 0.637819 0.538074 0.42184 0.26003 0.577209 0.643391 0.663461 0.406224 0.0355706 0.589339 0.0546747 0.685173 0.499481 0.240662 0.971058 0.550689 0.414241 0.834949 0.33992 0.902217 0.277614 0.664511 0.604654 0.619965 0.0784585 0.534025 0.580422 0.101782 0.0133406 0.988382 0.7396 0.551415 0.410222 0.99963 0.128624 0.0536133 0.663091 0.534848 0.0891839 0.25243 0.589522 0.774357 0.751912 0.830184 0.745415 0.302601 0.244425 0.580364 0.642521 0.146641 0.857978 0.307032 0.751295 0.477943 0.0217983 0.829754 0.0119682 0.602221 0.931535 0.0253088 0.590602 0.671135 0.576724 0.000824207 0.670766 0.705347 0.0544375 0.333857 0.240195 0.143621 0.586288 0.829717 0.917979 0.338199 0.659901 0.663394 0.6408 0.904326 0.243758 0.283321 0.0509667 0.101735 0.590354 0.802262 0.579678 0.612152 0.632015 0.591647 0.214373 0.56355 0.616955 0.804975 0.234686 0.193679 0.805799 0.905452 0.899026 0.860237 0.239309 0.139221 0.00385829 0.825596 0.968939 0.921837 0.163796 0.62884 0.58523 0.804596 0.533165 0.828988 0.584132 0.930723 0.678271 0.386394 0.510402 0.290423 0.0184091 0.102048 0.504796 0.58196 0.719004 0.309771 0.816645 0.912683 0.115571 0.722097 0.811709 0.975807 0.961406 0.95093 0.979666 0.787003 0.919869 0.901503 0.950798 0.548708 0.486733 0.755394 0.0818735 0.315721 0.843312 0.666005 0.246445 0.521583 0.0523992 0.756846 0.812006 0.0708083 0.858895 0.316802 0.652768 0.577898 0.626573 0.469413 0.490581 0.742143 0.191511 0.30229 0.717951 0.152917 0.25322 0.697616 0.93992 0.173089 0.599119 0.890718 0.721797 0.0858521 0.646113 0.80367 0.401573 0.489424 0.469676 0.648018 0.0110069 0.522075 0.404864 0.823013 0.592883 0.263759 0.139814 0.245651 0.841657 0.766387 0.715065 0.332238 0.50853 0.906575 0.634528 0.226481 0.0594924 0.887748 0.924097 0.999412 0.0608362 0.523216 0.782633 0.609068 0.536243 0.586303 0.0106416 0.0256669 0.0559791 0.658659 0.0366738 0.578054 0.0635237 0.859686 0.170937 0.327283 0.9995 0.416589 0.16894 0.765887 0.131653 0.501178 0.274417 0.0382287 0.135705 0.500898 0.0977211 0.0234531 0.424995 0.0971331 0.0842894 0.948211 0.987263 0.866922 0.557279 0.523506 0.453226 0.567921 0.549173 0.509205 0.22658 0.585846 0.0872588 0.290104 0.445533 0.258196 0.617387 0.445033 0.674785 0.786326 0.21092 0.806438 0.287504 0.485337 0.844667 0.423209 0.986235 0.942388 0.446662 0.41123 0.039521 0.530952 0.359441 0.0267842 0.397874 0.91672 0.55029 0.8511 0.484641 0.0994628 0.360305 0.711222 0.685309 0.447564 0.00132573 0.130842 0.70576 0.618712 0.575875 0.380544 0.405038 0.786796 0.186983 0.692542 0.272133 0.0316495 0.115752 0.258368 0.562414 0.669598 0.0135584 0.0933659 0.0290395 0.0403427 0.49124 0.94576 0.590633 0.34234 0.430401 0.690096 0.702645 0.141623 0.375405 0.150208 0.142949 0.506247 0.855968 0.761661 0.0821224 0.236512 0.166699 0.868918 0.423495 0.859242 0.141051 0.455145 0.974993 0.39942 0.429182 0.537407 0.0690179 0.44274 0.630773 0.0980574 0.483083 0.122013 0.0438174 0.0737159 0.464353 0.474219 0.763811 0.166998 0.615842 0.139216 0.317206 0.75879 0.645464 0.173174 0.520451 0.727586 0.409687 0.687151 0.596504 0.833182 0.546393 0.737555 0.288326 0.521386 0.136975 0.717508 0.0587931 0.205993 0.160248 0.689566 0.30405 0.643331 0.811579 0.347868 0.717047 0.275933 0.822086 0.480859 0.442931 0.437928 0.620075 0.760137 0.196719 0.265539 0.933311 0.71717 0.993125 0.342998 0.404321 0.589629 0.950714 0.327184 0.464505 0.472099 0.464159 0.182014 0.530892 0.670152 0.342262 0.220459 0.974202 0.985593 0.0320382 0.32207 0.702641 0.307971 0.144156 0.1835 0.750902 0.582084 0.803575 0.511039 0.778803 0.0691138 0.44435 0.495973 0.0622386 0.787347 0.900294 0.651868 0.963527 0.851007 0.979052 0.428032 0.323107 0.443211 0.610046 0.853999 0.113363 0.952308 0.0744578 0.0875648 0.937901 0.106496 0.409635 0.640542 0.414467 0.553791 0.824041 0.165369 0.135875 0.627616 0.676407 0.914678 0.69673 0.120757 0.410651 0.758969 0.908104 0.310944 0.410836 0.871631 0.161952 0.389888 0.299663 0.485059 0.833099 0.909708 0.339058 0.946461 0.862016 0.413516 0.0340263 0.799917 0.520012 0.443661 0.440458 0.934478 0.997451 0.2645 0.0998469 0.133326 0.892116 0.776254 0.048004 0.588846 0.458655 0.347815 0.805115 0.769599 0.758651 0.676745 0.931551 0.148539 0.976408 0.416609 0.981637 0.886116 0.755667 0.928099 0.748131 0.169183 0.962125 0.548048 0.689194 0.405786 0.988506 0.623672 0.403238 0.253006 0.723519 0.536564 0.145122 0.499773 0.584568 0.733968 0.396784 0.0432225 0.0817827 0.201899 0.812821 0.840433 0.878644 0.744372 0.988972 0.855051 0.160982 0.97061 0.741167 0.916649 0.898709 0.489298 0.0858311 0.860834 0.0373466 0.775025 0.26662 0.0258531 0.398698 0.669857 0.278859 0.122217 0.206421 0.423981 0.62199 0.790989 0.157949 0.0187743 0.834212 0.239732 0.220673 0.647033 0.0801656 0.0993164 0.391405 0.0691378 0.954368 0.552387 0.0397475 0.695535 0.469035 0.938456 0.184833 0.554866 0.79929 0.22218 0.329892 0.0659098 0.248033 0.728589 0.735767 0.526892 0.942188 0.950873 0.472796 0.733178 0.108823 0.491571 0.567389 0.348555 0.712244 0.214422 0.42872 0.81156 0.605827 0.497858 0.765928 0.158214 0.537606 0.461462 0.62725 0.476062 0.646295 0.182116 0.275352 0.868475 0.512008 0.341262 0.116508 0.240597 0.0770289 0.6434 0.0914027 0.0192173 0.594273 0.564199 0.752395 0.703096 0.0557698 0.319784 0.0516508 0.768013 0.534206 0.480371 0.579573 0.140033 0.978229 0.345501 0.298248 0.515835 0.806963 0.925497 0.991897 0.453259 0.107613 0.267249 0.321734 0.619621 0.60851 0.438242 0.860217 0.685539 0.0816417 0.95162 0.704757 0.675915 0.515819 0.457151 0.379011 0.571589 0.776935 0.430662 0.339602 0.311141 0.911033 0.919176 0.451175 0.889262 0.264676 0.749422 0.405098 0.0716397 0.674919 0.396995 0.524898 0.782533 0.664243 0.846632 0.272754 0.284874 0.262371 0.958293 0.366516 0.213991 0.663049 0.0424307 0.72981 0.120201 0.421442 0.301399 0.897136 0.852104 0.641001 0.208278 0.763137 0.560176 0.659452 0.652399 0.824853 0.408875 0.0574968 0.896493 0.083794 0.454491 0.421391 0.866327 0.118735 0.268023 0.26848 0.391488 0.552897 0.530851 0.349781 0.919413 0.744841 0.0128304 0.961843 0.474651 0.133031 0.383285 0.77605 0.0301674 0.235388 0.417051 0.238445 0.998525 0.977227 0.897897 0.650924 0.80208 0.306772 0.708421 0.698573 0.390566 0.162912 0.119964 0.256892 0.281647 0.387987 0.525373 0.673135 0.940884 0.0562232 0.022916 0.860296 0.801065 0.0357464 0.822139 0.275716 0.168778 0.205424 0.0517661 0.198945 0.440813 0.468817 0.43739 0.439338 0.446045 0.335287 0.0902622 0.248125 0.642059 0.798683 0.946698 0.961596 0.0666617 0.289518 0.243243 0.454649 0.81489 0.916378 0.395532 0.871113 0.939294 0.255829 0.672178 0.97504 0.0779679 0.947894 0.143818 0.283392 0.99966 0.342763 0.724205 0.468477 0.780153 0.163543 0.914522 0.11544 0.253805 0.162647 0.757499 0.0524885 0.109345 0.790125 0.0140841 0.176006 0.079642 0.257327 0.630655 0.894532 0.173704 0.0261872 0.765645 0.112998 0.282016 0.437823 0.0880377 0.359984 0.385717 0.231855 0.643376 0.385378 0.574618 0.367581 0.853855 0.354771 0.531124 0.768377 0.470211 0.784929 0.931024 0.227711 0.837417 0.0403683 0.0178355 0.851501 0.216375 0.0974775 0.108828 0.84703 0.99201 0.282532 0.873217 0.757655 0.39553 0.155233 0.195478 0.483568 0.515216 0.581196 0.715423 0.158592 0.966573 0.290041 0.526173 0.820428 0.644812 0.0572967 0.588805 0.842226 0.519828 0.342735 0.679643 0.560197 0.36057 0.531144 0.776571 0.458048 0.639973 0.623601 0.450057 0.922505 0.496818 0.207712 0.318035 0.652051 0.403191 0.801603 0.167267 0.984386 0.517026 0.325859 0.950959 0.807067 0.852032 0.771387 0.451879 0.909329 0.360192 0.566903 0.751554 0.88002 0.909638 0.431197 0.440217 0.270209 0.962342 0.216789 0.728256 0.602314 0.84039 0.178314 0.524819 0.337208 0.386026 0.842854 0.989258 0.789217 0.644457 0.156525 0.773603 0.161482 0.482384 0.724562 0.968549 0.334416 0.495949 0.420429 0.243745 0.856141 0.987332 0.995299 0.736162 0.89697 0.426496 0.176379 0.167179 0.388838 0.393168 0.895435 0.991152 0.233557 0.073749 0.515971 0.570765 0.459775 0.358825 0.560023 0.248992 0.00328197 0.716548 0.0225948 0.164764 0.198933 0.747157 
0.351819 0.566728 0.581682 0.967568 0.0975185 0.545356 0.404136 0.205989 0.910267 0.466855 0.277892 0.472507 0.883896 0.7269 0.714766 0.0879172 0.89013 0.974037 0.176179 0.897011 0.850806 0.402153 0.032625 0.115024 0.133314 
